<?xml version="1.0"?>
<opencv_storage>
<opencv_ml_svm>
  <format>3</format>
  <svmType>EPS_SVR</svmType>
  <kernel>
    <type>LINEAR</type></kernel>
  <C>1.0000000000000000e-02</C>
  <p>1.0000000000000001e-01</p>
  <term_criteria><epsilon>1.0000000000000000e-03</epsilon>
    <iterations>1000</iterations></term_criteria>
  <var_count>1024</var_count>
  <sv_total>1</sv_total>
  <support_vectors>
    <_>
      2.44151074e-02 -4.65744510e-02 1.33470111e-02 2.05893237e-02
      6.46299720e-02 4.84157316e-02 -2.37960778e-02 1.68297011e-02
      4.76297252e-02 6.20827917e-03 1.53004304e-02 2.17220094e-02
      -1.73267648e-02 6.88324636e-03 -7.39883184e-02 2.14982945e-02
      -8.08086339e-03 -3.61497588e-02 3.19081396e-02 4.57619205e-02
      1.17582716e-02 2.92796995e-02 -3.78123187e-02 1.43486615e-02
      -2.87370551e-02 -3.92296761e-02 1.19420392e-02 1.28091136e-02
      -4.19569621e-03 -1.10826464e-02 -2.42937058e-02 1.67543464e-03
      1.46439923e-02 -1.91079336e-03 1.66674461e-02 2.68978961e-02
      5.00199199e-02 5.55529222e-02 2.06578476e-03 -7.67485192e-03
      3.64377312e-02 -7.02390000e-02 -4.44576927e-02 -9.31043737e-03
      2.74045561e-02 5.55585437e-02 3.95498588e-04 2.73398077e-03
      -1.90297980e-02 2.62898169e-02 -1.03549659e-02 5.06898873e-02
      5.58592938e-02 1.03075700e-02 1.02276271e-02 -1.25541119e-03
      -4.66651358e-02 -1.84571408e-02 -2.00337148e-03 4.91715148e-02
      7.68194944e-02 4.16418165e-02 -1.44014778e-02 8.02903622e-03
      -7.14691309e-03 -2.67287455e-02 -1.17473572e-03 6.44212365e-02
      7.09854290e-02 4.82056960e-02 3.11658485e-03 1.53918732e-02
      4.36850153e-02 -6.22219685e-03 2.52200775e-02 9.17828754e-02
      5.73385470e-02 2.54604369e-02 -5.35112321e-02 2.31832936e-02
      4.53381017e-02 -3.21479887e-02 -3.16262282e-02 2.24791002e-02
      5.40209487e-02 6.85206875e-02 -7.62521755e-03 4.55051214e-02
      8.29372257e-02 -4.95605431e-02 -2.15495359e-02 1.49961859e-02
      6.63049668e-02 6.66829646e-02 -4.00642082e-02 2.75191367e-02
      6.40661418e-02 -2.34249290e-02 -3.94017473e-02 1.34505481e-02
      5.31102158e-02 3.51429321e-02 -8.93521868e-03 9.18374807e-02
      4.66876142e-02 -5.38942702e-02 -3.29966620e-02 4.38747630e-02
      3.50965746e-02 4.41596806e-02 3.44607327e-03 6.37813061e-02
      3.92690822e-02 -5.55056222e-02 -2.83508915e-02 5.63197136e-02
      7.45352581e-02 7.15419203e-02 -2.88933911e-03 9.33874585e-03
      2.57151909e-02 -2.50494899e-03 -2.73010004e-02 3.93857323e-02
      2.72327699e-02 3.48015539e-02 -2.74722055e-02 3.06899045e-02
      -3.76756070e-03 -2.79086512e-02 2.83338036e-02 9.58873425e-03
      1.53074656e-02 1.07941497e-02 7.48288585e-03 4.56631444e-02
      2.94493996e-02 -2.73706038e-02 -4.06689979e-02 2.30629835e-02
      5.14534004e-02 3.65505624e-03 -1.28957874e-03 8.21648538e-03
      1.46665424e-02 -2.44221389e-02 3.08068207e-04 3.11686154e-02
      1.42843071e-02 -2.08591651e-02 -3.25018652e-02 4.04347805e-03
      5.38912183e-03 -4.59582880e-02 -3.82693261e-02 5.73100569e-03
      2.15499150e-03 -1.60586853e-02 9.30330008e-02 3.60784493e-02
      -2.57043773e-03 1.72374640e-02 3.85359954e-03 6.72733262e-02
      1.95839033e-02 4.89906073e-02 3.37084271e-02 -2.77573708e-02
      6.54790550e-03 9.55861360e-02 2.80256867e-02 4.02398817e-02
      1.89275704e-02 6.21833187e-03 -9.26374923e-03 -3.54251452e-02
      3.15034091e-02 5.41622974e-02 5.92936343e-03 -1.81762371e-02
      -2.63230167e-02 1.86737552e-02 -3.71696986e-02 4.72939201e-02
      1.49199637e-02 -8.93850811e-03 -1.44797247e-02 1.66010759e-05
      2.39017606e-02 -3.64411063e-02 -3.75471935e-02 1.75450910e-02
      -1.89246088e-02 7.67842866e-03 4.30553667e-02 1.31628877e-02
      3.07421181e-02 6.79994896e-02 2.89206188e-02 -6.79502310e-03
      8.75116605e-03 -6.61840588e-02 3.24071199e-02 8.79248530e-02
      5.56997992e-02 5.61315864e-02 -2.39942707e-02 -4.77613043e-03
      1.82364210e-02 -3.98668610e-02 1.05657270e-02 1.12228386e-01
      5.23757078e-02 4.82183173e-02 -2.56481189e-02 1.91429034e-02
      -7.00210826e-03 -1.33439535e-02 1.45701421e-02 8.59678164e-02
      5.62265031e-02 2.03238782e-02 -5.02556982e-03 7.94087362e-04
      1.01336660e-02 -2.53425259e-02 1.07138918e-03 1.00229442e-01
      7.17004463e-02 7.36947805e-02 -4.95062470e-02 2.71475557e-02
      2.36093868e-02 -4.81051169e-02 -1.62119430e-03 6.72639906e-02
      5.06507531e-02 2.27920655e-02 -4.50670943e-02 2.82094702e-02
      2.43313070e-02 -5.59157617e-02 -5.44369221e-03 9.62128583e-03
      5.15566058e-02 5.87273277e-02 -3.84465121e-02 6.42501935e-02
      7.67694786e-02 -4.25565988e-02 -2.89699323e-02 -1.55074075e-02
      1.01343868e-02 -1.80434305e-02 -6.53733239e-02 1.05885901e-01
      1.48006864e-02 -1.71924718e-02 4.65913489e-02 1.63044296e-02
      -2.48546200e-03 1.99786928e-02 8.99742078e-03 2.29921341e-02
      9.38039459e-03 3.48122530e-02 3.15722376e-02 -1.71647780e-02
      -2.09876467e-02 2.87685394e-02 -1.40226306e-02 -3.27917039e-02
      2.14113034e-02 -2.83466261e-02 2.74214968e-02 3.30730341e-02
      1.09606097e-02 2.17249002e-02 2.45801099e-02 5.03568202e-02
      -1.58340819e-02 3.33097130e-02 5.13396822e-02 5.97409196e-02
      4.37979959e-02 7.46950954e-02 1.14145754e-02 2.69442312e-02
      1.06371239e-01 2.16585815e-01 2.18051866e-01 7.79501051e-02
      -7.51300603e-02 -1.22358404e-01 -1.38959706e-01 -3.39653604e-02
      7.14249089e-02 1.01881810e-01 2.77146865e-02 -3.42559181e-02
      -2.36073937e-02 4.01589200e-02 6.29456639e-02 9.91794914e-02
      6.97206929e-02 7.20595941e-02 1.38018643e-02 1.51133314e-02
      4.17557172e-03 2.12577488e-02 5.05807213e-02 7.14503899e-02
      9.49895009e-02 1.28893316e-01 2.43391115e-02 -4.76984344e-02
      -3.16118961e-03 -2.51070261e-02 6.07965998e-02 6.29650429e-02
      3.39062177e-02 4.59737666e-02 -2.55197212e-02 -2.20952649e-02
      2.97566634e-02 5.03168926e-02 7.39360824e-02 6.40028790e-02
      -3.12086381e-03 -3.12355086e-02 -3.59846950e-02 -1.73162192e-03
      -4.78412099e-02 7.09832162e-02 1.50003284e-01 5.51727489e-02
      5.02446629e-02 4.29159962e-02 -7.14428537e-03 2.04139799e-02
      1.33665232e-02 -2.09429618e-02 6.72350302e-02 4.14102711e-02
      5.22853285e-02 4.59744968e-02 3.96403223e-02 8.05334300e-02
      5.47990762e-02 9.49227717e-03 -1.65787917e-02 2.62996722e-02
      1.09170023e-02 -1.12593481e-02 -4.52361256e-03 4.87957709e-02
      6.03738390e-02 2.65081450e-02 3.59299667e-02 -2.30754702e-03
      -4.24637878e-03 7.46569689e-03 6.95036026e-03 5.35711497e-02
      3.91168967e-02 -1.49676744e-02 2.67934687e-02 2.96855699e-02
      -5.88176167e-03 -7.04262182e-02 -2.25593541e-02 2.55320258e-02
      6.07678629e-02 9.18400809e-02 1.16767911e-02 4.04527374e-02
      5.71500957e-02 -4.29383703e-02 -3.18904370e-02 4.00372297e-02
      5.13474196e-02 7.08863437e-02 3.04736625e-02 7.09217340e-02
      2.56185024e-03 -3.17192525e-02 1.49072129e-02 1.04960892e-02
      2.44233981e-02 4.71873581e-03 -5.86972060e-03 -7.95717165e-03
      1.78812724e-02 -1.76820699e-02 -4.70695877e-03 3.40589322e-02
      3.09225600e-02 -4.34105396e-02 4.71928576e-03 5.94297983e-02
      6.62165508e-02 1.24356776e-01 9.61958915e-02 3.88069861e-02
      -3.00971195e-02 -7.22874254e-02 -3.39781530e-02 -1.51927099e-02
      5.06086163e-02 4.25386205e-02 1.00273564e-01 2.41659824e-02
      -1.64510645e-02 4.56990227e-02 6.54579401e-02 6.74075037e-02
      4.40120604e-03 -4.81892899e-02 -2.55444329e-02 3.28075550e-02
      9.58632305e-02 7.00196624e-02 6.35990724e-02 2.84139719e-02
      5.41322120e-02 -1.79577190e-02 5.31725138e-02 7.40126297e-02
      4.70036753e-02 2.21383236e-02 -1.96390729e-02 4.84982207e-02
      8.08054954e-02 -4.71625961e-02 -5.80049679e-03 1.10257193e-01
      6.17136844e-02 -2.43997574e-02 1.48543241e-02 5.68693504e-02
      -9.18570533e-03 -3.28592956e-02 3.22769140e-03 9.95239168e-02
      8.31965953e-02 7.66206682e-02 2.03333143e-02 3.51758767e-03
      -4.03864421e-02 -2.59659439e-02 3.81041095e-02 1.47021577e-01
      1.65376231e-01 8.97110775e-02 6.55503385e-03 -1.48253224e-03
      -1.17814611e-03 1.50139453e-02 4.23860550e-02 4.35980037e-02
      5.89022264e-02 1.02542557e-01 3.97664979e-02 5.50245261e-03
      5.10767139e-02 7.73561299e-02 1.60159804e-02 1.55912330e-02
      1.48762744e-02 3.64045724e-02 9.67923701e-02 8.07376280e-02
      6.63516149e-02 9.46520790e-02 1.81075558e-02 -9.77105182e-03
      -3.26586030e-02 -1.21283950e-02 8.95937681e-02 3.22638862e-02
      6.04865924e-02 6.99035525e-02 -4.73286510e-02 -5.04472665e-02
      -9.22191963e-02 -5.25657227e-03 1.64613008e-01 6.29586652e-02
      9.67604518e-02 1.36390120e-01 -9.88419354e-03 -9.93621424e-02
      -7.19289035e-02 -2.28430144e-02 8.68175179e-02 8.26267749e-02
      -3.17974091e-02 1.59105882e-02 5.59824966e-02 8.86457637e-02
      9.96609777e-02 3.54572460e-02 -4.52563316e-02 -4.92681712e-02
      4.14926857e-02 -5.09861223e-02 1.13998847e-02 6.73999861e-02
      6.92108944e-02 5.87886460e-02 -3.40842269e-02 2.38769278e-02
      1.79549735e-02 -5.12036216e-03 1.55371753e-02 -2.22874656e-02
      2.37729121e-02 -5.43794036e-03 4.44037467e-02 3.51277590e-02
      -1.04299961e-02 -2.12272089e-02 -2.91007124e-02 2.74591148e-02
      4.64269817e-02 3.57901677e-02 5.90533717e-03 2.11331323e-02
      -1.31938921e-03 -6.32346496e-02 -8.29732716e-02 -3.68225984e-02
      4.14445549e-02 1.38201177e-01 1.10285252e-01 9.74226743e-02
      7.25763068e-02 7.03180805e-02 1.16971232e-01 1.86619945e-02
      3.49168070e-02 3.56082991e-02 3.86318527e-02 3.97637673e-03
      2.75479127e-02 1.51855135e-02 6.53134659e-02 9.82143730e-02
      3.72507647e-02 -2.56795101e-02 1.76978554e-03 2.69742440e-02
      8.31903815e-02 -2.45836005e-02 4.16813605e-02 8.98706242e-02
      9.19945836e-02 -3.48897874e-02 -3.83518673e-02 7.19458610e-02
      2.86262352e-02 -9.49448999e-03 2.87414528e-02 5.32982759e-02
      5.76056615e-02 2.57922206e-02 6.79822918e-03 7.01879784e-02
      -2.51724594e-03 -4.81610838e-03 5.74196950e-02 1.40454695e-01
      1.48870513e-01 3.73652279e-02 -5.47986254e-02 -2.12534983e-02
      -2.98815612e-02 -2.04866286e-02 5.75084314e-02 1.17273934e-01
      1.40879765e-01 5.16179390e-02 -3.04739662e-02 -2.40651574e-02
      4.00183201e-02 4.24854308e-02 4.01052274e-02 2.54394654e-02
      7.55544938e-03 1.36453833e-03 -4.29297313e-02 2.67682727e-02
      7.03027397e-02 4.25842516e-02 2.32970505e-03 2.23124909e-04
      -1.23801036e-02 7.21918326e-03 1.09363645e-01 5.79903126e-02
      8.62640515e-02 6.83153346e-02 -4.56632972e-02 -9.67101008e-02
      -7.08701462e-02 -3.72695699e-02 1.17956884e-01 9.67906862e-02
      1.25654370e-01 1.44611195e-01 -3.33354436e-02 -1.10486113e-01
      -1.02913454e-01 -9.28197280e-02 3.44888642e-02 1.09794229e-01
      5.18620647e-02 9.97397453e-02 -2.54292283e-02 -7.43304938e-02
      -6.31140918e-02 -2.50440296e-02 5.04684113e-02 1.01454772e-01
      -3.59019078e-02 -3.23366150e-02 6.20197430e-02 7.08113015e-02
      7.40521178e-02 1.00137621e-01 2.88413968e-02 3.59103717e-02
      5.20065911e-02 -6.35064468e-02 6.15305677e-02 1.08821988e-01
      9.02577266e-02 3.73252146e-02 -3.28104571e-02 1.67140514e-02
      4.41020317e-02 -2.87282933e-02 5.46327420e-02 2.42509227e-02
      -2.38720831e-02 -2.91805714e-02 -3.62015963e-02 5.98339597e-03
      -1.24674151e-02 2.85169519e-02 8.23209621e-03 3.77327278e-02
      2.85748914e-02 1.12407515e-02 -2.85572419e-03 3.56897386e-03
      7.94533119e-02 -2.64541316e-03 -2.55652852e-02 6.19821772e-02
      -4.40353667e-03 -3.46070193e-02 -2.46957992e-03 3.38018574e-02
      9.97639354e-03 -2.49198023e-02 5.13979122e-02 5.94754443e-02
      4.33444753e-02 3.88671719e-02 4.20663133e-02 -2.46533602e-02
      -3.30946743e-02 -1.09349325e-01 -1.05639569e-01 -6.60283193e-02
      3.66785154e-02 1.74240321e-01 1.68409526e-01 5.80496304e-02
      1.09315306e-01 6.49420023e-02 -4.60366299e-03 -2.64798626e-02
      -1.96789335e-02 1.26789482e-02 1.20724075e-01 7.04420954e-02
      4.80485298e-02 5.52664734e-02 3.75209413e-02 -3.65237007e-04
      4.29502428e-02 3.66646498e-02 4.38038558e-02 5.41633293e-02
      4.18098569e-02 8.47539157e-02 4.99635600e-02 3.71212251e-02
      -1.75903402e-02 6.56363070e-02 8.23209733e-02 -6.70940382e-03
      1.12398028e-01 9.00017321e-02 -3.51552181e-02 -3.97478417e-02
      -4.21538502e-02 -4.12851945e-03 9.56769139e-02 1.18497245e-01
      7.18086436e-02 1.29389644e-01 -8.57296214e-03 -1.48365134e-02
      -6.57848595e-03 -6.07570596e-02 -4.50524539e-02 3.94841619e-02
      3.61279361e-02 8.68575573e-02 2.67644413e-02 -2.73456927e-02
      -2.55353469e-02 5.17316023e-03 2.31381487e-02 2.64771264e-02
      4.73203510e-02 4.65200469e-02 1.15314564e-02 2.77002100e-02
      4.43474725e-02 1.50097609e-02 -1.23315146e-02 3.55216563e-02
      4.63883206e-02 2.95537747e-02 7.45480927e-03 4.23853956e-02
      4.18142565e-02 3.85512155e-03 -3.43644843e-02 1.29715288e-02
      -1.19513122e-03 -6.41562417e-03 2.76906826e-02 6.35706708e-02
      3.34723592e-02 6.34594932e-02 2.53988914e-02 -4.18149401e-03
      1.89064741e-02 -4.74455446e-04 4.46940884e-02 3.88997979e-02
      4.45721522e-02 9.05673727e-02 -5.35284095e-02 -4.39944258e-03
      5.88082820e-02 -1.32520376e-02 1.13303037e-02 4.21047099e-02
      7.17503279e-02 2.98960190e-02 -5.38102277e-02 4.99277115e-02
      1.70826446e-02 -4.73957807e-02 4.58063446e-02 2.31229290e-02
      2.55147796e-02 -7.77862966e-03 1.65108088e-02 4.50278111e-02
      4.98323515e-02 -6.43516192e-03 -3.55499722e-02 2.70341020e-02
      9.35042650e-03 -3.74450646e-02 1.74431615e-02 4.32420820e-02
      5.91191016e-02 -1.60464365e-02 -9.76047479e-03 2.77771261e-02
      1.87763255e-02 -5.69890626e-02 2.29713358e-02 7.60191977e-02
      -1.03455838e-02 1.33963441e-03 -1.65709816e-02 9.12567973e-03
      1.40098827e-02 -2.31957529e-03 -3.17967944e-02 6.50126487e-04
      1.21678980e-02 -1.62259266e-02 1.50537705e-02 4.35285755e-02
      4.51881364e-02 -4.05768752e-02 8.09119176e-03 1.84107863e-03
      4.95166592e-02 -3.09894253e-02 4.99778502e-02 6.88041300e-02
      -2.61155493e-03 -3.26737674e-04 6.36389181e-02 3.08499914e-02
      2.70800907e-02 1.21496413e-02 -3.91491354e-02 -2.02228036e-02
      -1.00856302e-02 3.86342704e-02 2.75573097e-02 4.87717800e-02
      5.34007810e-02 7.02542737e-02 -1.70464721e-02 5.66671044e-02
      -6.74913824e-03 -5.26611917e-02 -1.01859495e-03 2.95274146e-02
      4.95690852e-02 1.42473206e-02 1.89489182e-02 8.51096511e-02
      5.43260761e-03 -1.79505479e-02 -1.25984689e-02 1.47499973e-02
      1.45048052e-02 -2.00382378e-02 1.63574349e-02 9.44397077e-02
      8.78886804e-02 3.91797125e-02 -3.95679958e-02 2.67413966e-02
      1.18199736e-02 -5.61974719e-02 4.05578576e-02 9.61977169e-02
      7.15986565e-02 2.38843951e-02 -6.11935407e-02 9.77574196e-03
      5.82813844e-03 3.96277057e-03 5.97293265e-02 1.07524134e-01
      1.09750465e-01 3.00023202e-02 -5.33373989e-02 9.66858584e-03
      2.15749796e-02 -4.85113487e-02 3.19092274e-02 6.02493659e-02
      7.27515221e-02 3.72982621e-02 -1.95804164e-02 8.51966534e-03
      8.52701887e-02 -4.24542911e-02 -3.13366298e-04 5.33054546e-02
      3.68998460e-02 4.33578081e-02 -3.62706706e-02 3.58576849e-02
      5.69611117e-02 -4.50850017e-02 4.14441451e-02 5.83781041e-02
      3.51329707e-03 2.30811704e-02 -3.22745964e-02 1.34645803e-02
      5.62750399e-02 -5.68277538e-02 -7.75402645e-03 3.83244902e-02
      5.36460727e-02 4.63314578e-02 -3.33507452e-03 2.73161866e-02
      1.88540276e-02 -1.33977151e-02 5.74822091e-02 6.34718174e-03
      -2.69726906e-02 7.46148406e-03 -6.68742806e-02 2.76370700e-02
      -3.86651792e-02 -4.40719426e-02 -2.30213883e-03 1.35760996e-02
      -3.04231443e-03 -1.58418659e-02 2.76888930e-03 5.51713025e-03
      -2.65356526e-02 -8.65397137e-03 7.47417882e-02 5.77168986e-02
      1.55023970e-02 3.23136300e-02 -1.49099939e-02 -2.61431723e-03
      3.54837887e-02 -4.64255782e-03 1.58734445e-03 -1.44424532e-02
      8.42000730e-03 7.94049278e-02 3.03388778e-02 4.75577861e-02
      3.55603062e-02 2.85415761e-02 5.06146774e-02 3.75264958e-02
      1.70036629e-02 -8.68884753e-03 2.11668070e-02 1.82362795e-02
      -1.62537373e-03 1.79439001e-02 4.07066792e-02 -1.26820281e-02
      -4.35159029e-03 -2.97366399e-02 -6.38223626e-03 -1.26212789e-02
      7.75674591e-03 -2.78116651e-02 3.67222801e-02 8.32158029e-02
      6.14951625e-02 3.59808467e-02 -4.71514389e-02 -4.15985696e-02
      -1.86170135e-02 -3.99979874e-02 3.04703899e-02 3.44201289e-02
      1.86629575e-02 3.97158265e-02 -2.19586585e-03 -3.83065380e-02
      1.45773878e-02 3.01934688e-05 -4.68471833e-02 5.59009388e-02
      3.38967666e-02 4.66069765e-02 -8.91291350e-03 -2.30299588e-02
      3.80184986e-02 -5.84952533e-03 5.03128804e-02 4.11882028e-02
      1.38805304e-02 -2.29607522e-02 -7.74767473e-02 1.82900671e-02
      1.58340931e-02 -1.32257873e-02 -2.46050805e-02 2.93657333e-02
      1.88679490e-02 4.11303788e-02 -4.33812104e-03 2.85217706e-02
      3.48399431e-02 3.04545020e-03 2.89731640e-02 3.02768908e-02
      -1.06018689e-03 1.74217708e-02 -4.90000797e-03 6.05493225e-03
      3.00540477e-02 -5.09019522e-03 -1.67019926e-02 2.76868176e-02
      1.24633834e-02 1.89377181e-02 -4.14956594e-03 3.24208662e-02
      5.20458557e-02 -2.07196269e-02 2.17406359e-02 2.53377184e-02
      2.24115439e-02 7.62854591e-02 -1.11152790e-02 5.59862331e-02
      6.94647729e-02 -4.32698317e-02 -1.08378017e-02 1.14894658e-01
      8.13913643e-02 4.56583761e-02 -2.26438064e-02 6.87417835e-02
      4.51675467e-02 -3.74085195e-02 -2.13987716e-02 6.74138665e-02
      6.75292611e-02 8.46908987e-03 -6.33850321e-02 6.13335483e-02</_></support_vectors>
  <decision_functions>
    <_>
      <sv_count>1</sv_count>
      <rho>7.3525687591045754e+00</rho>
      <alpha>
        1.</alpha></_></decision_functions></opencv_ml_svm>
</opencv_storage>
